-0.084,-0.031,-0.258,-0.203,-0.046,-0.122,-0.133,-0.388,0.062,-0.239,-0.356,-0.562,-0.441,-0.131,-0.683,-0.283,-0.470,-0.186,-0.011,-0.031,-0.405,0.083,-0.085,-0.002,-0.233,-0.011,0.017,-0.136,-0.303,-0.699,-0.010,0.045,0.349,0.480,0.070,0.035,0.215,0.500,0.742,0.582,-0.264,-0.297,-0.274,0.100,0.538,-0.395,-0.848,-1.065,-1.033,-0.855,-0.145,-0.527,-0.219,-0.297,-0.399,-0.347,-0.783,-0.419,-0.006,0.378,-0.228,-0.740,-0.030,0.446,0.509,-0.217,-0.614,0.193,0.191,-0.002,-0.507,-0.259,-0.032,-0.047,-0.287,-0.473,-0.640,-0.669,-0.832,-0.930,0.049,-0.235,-0.322,-0.354,-0.382,0.500,0.299,-0.005,0.100,-0.197,0.364,0.311,-0.008,0.255,0.034,0.505,0.281,0.234,0.346,0.231,-0.738,-0.676,-0.425,0.291,0.728,0.097,0.406,0.298,0.374,0.869,0.404,0.408,-0.253,-0.994,-0.865,-0.377,-0.271,-0.648,-0.873,-0.822,-0.744,-0.971,-0.186,-0.015,-0.013,-0.594,-0.144,-0.209,0.019,-0.151,-0.414,-0.163,-0.014,0.163,-0.000,0.098,0.192,0.063,-0.061,-0.082,0.084,0.204,-0.099,-0.162,-0.339,-0.311,-0.001,0.190,0.078,-0.307,-0.353,-0.349,-1.881,-2.068,-1.328,-0.556,-0.621,-1.617,-1.232,-0.806,-0.643,-1.110,-2.256,-1.275,-0.669,-0.776,-1.257,-1.988,-1.134,-0.477,-1.328,-1.757,-1.811,-0.816,-0.108,-0.479,-0.465,-0.132,0.133,-0.186,-0.193,-0.288,-0.191,0.180,-0.253,-0.165,-0.229,-0.061,0.119,-0.029,-0.149,-0.075,-0.170,-0.127,-0.170,-0.238,-0.342,-0.096,0.161,0.074,-0.109,0.060,-0.024,0.432,0.743,-0.215,-0.477,-0.535,0.266,1.018,0.113,-0.219,-0.548,-0.067,0.215,0.556,0.320,-0.000,-0.106,-0.203,-0.349,-0.669,-0.403,-0.325,-0.134,-0.686,-0.408,-0.228,0.104,-0.141,-0.643,-0.509,-0.485,0.004,0.031,0.661,0.164,-0.135,-0.249,0.380,0.008,0.046,-0.026,-0.233,0.020,-0.377,-0.327,0.009,0.083,-0.379,0.008,0.495,0.302,0.559,0.557,-0.196,0.465,0.438,0.525,0.274,-0.877,0.259,0.186,0.115,-0.259,-1.526,-0.851,-1.171,-1.154,-1.046,-0.411,-0.659,-1.211,-0.584,-0.333,0.584,0.173,-0.191,-0.042,-0.156,-0.271,0.194,0.176,0.486,0.194,-0.299,0.388,0.407,0.468,0.209,-0.761,-0.273,0.150,0.123,0.140,-0.496,-1.130,-1.081,-0.996,-1.284,0.235,0.555,0.425,0.477,-0.242,0.406,0.516,0.441,-0.538,-0.011,-0.299,-0.329,-0.265,-0.056,-0.346,-0.379,-0.393,-0.113,-0.348,-0.332,-0.398,-0.388,-0.270,-0.464,-0.310,-0.307,-0.082,-0.114,-0.001,-0.139,-0.129,0.430,-0.017,-0.183,-0.135,-0.148,0.071,-0.698,-0.733,-0.749,-1.017,-0.754,-0.803,-0.733,-0.416,-0.291,-0.364,-0.233,-0.281,-0.333,-0.323,-0.251,-0.290,-0.688,1.276,-0.162,-0.198,-0.118,1.657,-0.196,-0.203,-0.283,1.237,-0.122,-0.185,-0.255,-0.292,-0.083,-0.233,-0.104,-0.112,-0.425,-0.364,-0.612,-0.581,-0.632,-0.219,-0.549,-0.676,-0.541,-0.044,-0.425,-0.366,-0.403,-0.355,0.285,-0.403,-0.271,-0.317,-0.331,-0.254,-0.301,-0.294,-0.367,-0.349,-0.268,-0.323,-0.208,0.072,0.658,-0.252,-0.077,-0.222,0.321,-0.129,-0.262,-0.244,-0.182,-0.657,0.678,0.679,0.716,0.029,0.794,0.606,0.790,-0.146,-0.464,-0.632,-0.641,-0.571,-0.577,-0.499,-0.550,-0.673,-0.556,-0.405,0.581,0.405,0.571,-0.142,0.535,0.468,0.466,-0.674,0.613,0.363,0.486,0.491,0.057,0.437,0.514,0.337,-0.151,-0.676,-1.118,-1.173,-1.245,-0.718,-1.237,-1.246,-1.176,-0.005,-0.102,0.342,0.241,0.306,-0.140,0.334,0.354,0.277,0.087,-0.106,0.763,0.597,0.649,0.988,0.698,0.663,0.728,1.032,-0.283,-0.406,-0.523,-0.386,-0.063,-0.468,-0.480,-0.463,-0.114,0.081,0.134,0.192,0.066,-0.260,0.147,0.178,0.160,-0.838,-0.552,-0.029,0.108,0.002,-0.435,0.021,0.124,0.112,-0.355,-1.163,-0.289,-0.283,-0.288,-0.582,-0.282,-0.230,-0.230,-0.676,-0.522,-1.210,-1.186,-1.178,-0.244,-1.112,-1.219,-1.288,-0.284,0.207,0.422,0.527,0.516,-0.133,0.496,0.549,0.444,0.098,-0.449,0.698,0.529,0.644,0.025,0.513,0.568,0.707,0.145,0.494,0.089,0.138,0.091,0.212,0.180,0.220,0.178,0.372,-0.904,-0.609,-0.484,-0.439,-1.079,-0.621,-0.477,-0.496,0.448,-0.031,-0.101,-0.173,-0.226,0.274,-0.065,-0.082,-0.054,-0.081,0.081,-0.105,-0.235,-0.211,0.127,-0.281,-0.236,-0.172,0.430,1.501,-0.213,-0.204,-0.291,0.874,-0.350,-0.244,-0.243,0.752,-0.003,-0.742,-0.773,-0.753,0.150,-0.711,-0.613,-0.628,0.288,-0.299,-0.016,0.058,0.038,-1.204,-0.094,0.019,-0.014,-0.962,0.431,-0.476,-0.625,-0.646,-0.368,-0.633,-0.615,-0.566,0.066,0.142,-0.725,-0.888,-0.872,0.801,-0.850,-0.806,-0.717,0.626,0.459,-0.140,-0.161,-0.166,-0.010,-0.175,-0.203,-0.275,0.012,0.064,0.410,0.390,0.436,0.114,0.427,0.384,0.349,0.082,-0.500,0.308,0.306,0.437,-0.517,0.395,0.499,0.499,-0.548,-0.056,-0.763,-0.718,-0.769,0.167,-0.784,-0.894,-0.883,0.319,-0.761,-0.870,-0.796,-0.803,-1.054,-0.860,-0.833,-0.887,-1.446,-0.308,-1.241,-1.301,-1.428,-0.119,-1.327,-1.302,-1.407,0.652,-0.269,-0.039,-0.132,-0.198,0.103,-0.137,-0.086,-0.204,0.145,1.083,-0.301,-0.305,-0.144,1.636,-0.208,-0.189,-0.160,1.477,-0.060,-0.122,-0.187,-0.173,-0.001,-0.193,-0.157,-0.132,0.220,0.188,-0.250,-0.347,-0.394,0.040,-0.419,-0.248,-0.308,0.014,-0.148,-0.634,-0.602,-0.668,0.151,-0.677,-0.683,-0.616,0.396,-0.731,0.149,0.119,0.225,-0.942,0.139,0.181,0.228,-0.176,-0.424,0.430,0.505,0.551,-0.534,0.456,0.501,0.515,-0.517,0.020,0.796,0.736,0.720,-0.143,0.860,0.794,0.724,-0.152,0.036,-0.886,-0.704,-0.902,-0.253,-0.870,-0.868,-0.891,-0.043,-0.265,-0.280,-0.347,-0.243,-0.242,-0.358,-0.296,-0.432,-0.289,-0.305,-0.045,0.050,-0.056,-0.264,-0.106,-0.097,-0.091,-0.309,-0.189,-1.077,-1.075,-1.036,-0.501,-1.071,-1.135,-1.161,-0.539,-0.240,-0.209,-0.079,-0.145,-0.075,-0.098,-0.153,-0.236,-0.274,-0.261,-0.397,-0.440,-0.449,0.257,-0.438,-0.437,-0.305,0.311,-0.213,-0.243,-0.131,-0.247,-0.096,-0.178,-0.085,-0.162,-0.072,-0.147,-0.781,-0.953,-0.801,-0.092,-0.770,-0.844,-0.923,-0.083,-0.388,-0.764,-0.752,-0.597,-0.054,-0.575,-0.652,-0.587,-0.166,-0.140,-0.373,-0.350,-0.384,-0.267,-0.297,-0.342,-0.368,-0.178,0.078,-0.311,-0.364,-0.495,0.105,-0.423,-0.413,-0.474,-0.225,-0.112,0.602,0.634,0.447,0.177,0.523,0.501,0.591,-0.083,-0.053,0.129,0.131,0.217,-0.298,0.202,0.172,0.112,-0.189,0.039,-0.272,-0.335,-0.332,0.299,-0.232,-0.323,-0.257,0.347,-0.069,-0.268,-0.201,-0.236,-0.052,-0.235,-0.221,-0.242,-0.364,-0.931,-0.421,-0.431,-0.374,-0.840,-0.493,-0.482,-0.476,-0.091,0.032,0.314,0.278,0.348,-0.245,0.299,0.217,0.312,0.208,0.403,0.067,-0.017,0.017,0.668,0.027,-0.033,-0.057,0.317,0.507,-0.020,0.044,-0.084,0.166,-0.092,0.002,-0.057,0.059,-0.110,-0.212,-0.213,-0.391,0.029,-0.396,-0.289,-0.307,0.260,-0.086,0.228,0.180,0.221,-0.118,0.120,0.213,0.178,0.096,-1.559,-0.101,-0.136,-0.266,-1.152,-0.172,-0.108,-0.177,-1.022,0.125,0.635,0.483,0.497,-0.618,0.522,0.528,0.583,-0.746,-1.706,0.186,0.923,0.749,-1.367,-0.058,0.441,0.342,0.222,1.400,0.049,0.605,0.153,0.179,0.967,0.412,0.976,0.332,0.434,-0.249,0.542,0.776,0.102,-0.446,-0.162,-0.747,1.094,0.700,0.607,-0.756,0.970,1.373,-0.147,-0.318,-0.887,-0.204,1.191,-0.196,-0.294,-0.823,-0.043,0.699,0.382,0.241,-0.287,0.585,0.972,0.398,-0.006,-0.776,-0.762,0.517,1.697,0.886,-1.430,-0.644,0.255,0.085,-0.249,1.466,-0.141,1.012,0.170,0.465,2.383,1.594,0.892,-0.028,0.526,-0.153,0.927,0.331,0.067,0.879,1.424,-0.964,0.711,1.612,0.665,-1.312,0.015,0.261,0.197,0.027,1.357,-0.176,0.656,0.027,-0.059,1.363,0.169,0.601,-0.058,0.485,1.414,0.536,0.574,-0.201,0.965,0.735,-0.228,0.657,0.820,0.801,-0.197,0.650,0.445,0.609,0.299,1.150,0.487,0.701,0.610,0.514,0.927,0.235,0.833,0.606,0.611,0.894,0.825,0.657,0.495,0.583,0.161,-0.403,0.031,0.319,-0.052,-0.839,-0.249,-0.047,-0.407,-0.277,-0.172,-0.180,0.335,-0.406,-0.400,1.310,-0.464,0.108,-0.170,-0.383,0.663,-0.110,-0.208,-0.255,0.680,0.060,-0.071,-0.319,-0.430,-0.310,-0.584,-0.899,0.092,-0.246,0.056,-0.096,0.207,-0.054,-0.808,-0.308,0.188,0.904,0.297,-0.613,-0.105,-0.131,-0.405,-0.297,-1.255,-1.083,-0.071,-0.241,0.336,-0.216,-0.356,0.262,-0.262,-0.639,0.067,-0.387,0.065,0.090,-0.382,0.220,-0.968,-0.829,-0.740,0.107,0.662,0.095,-0.001,-0.126,-0.265,-0.826,0.440,1.099,1.054,-0.375,-0.474,-0.877,-0.879,-0.341,0.498,0.132,0.221,0.295,-0.854,1.231,-1.339,0.469,1.753,0.936,-0.183,0.022,1.046,0.198,0.014,-0.785,-1.489,-1.078,-1.317,-1.137,-0.207,-0.285,-0.381,-0.521,-1.015,-0.018,-0.195,-0.378,-0.119,-0.527,0.033,0.026,-1.014,-0.152,0.550,0.493,0.764,-0.807,-0.208,-0.281,-0.166,-0.798,-0.728,-0.055,-0.291,0.038,-0.203,-0.115,-0.372,-0.229,-0.051,-0.276,-0.102,-0.205,0.025,-0.106,-0.486,-0.276,-0.194,0.457,0.558,0.000,-0.298,-0.372,0.033,-0.169,-0.555,-0.355,0.065,0.443,0.442,-0.166,-0.772,0.324,-0.595,-0.082,0.032,-0.310,-0.152,-1.409,-0.410,-0.032,-0.658,-1.129,-0.217,1.646,0.080,-0.547,0.050,0.825,-0.966,-0.339,-0.734,-0.404,-0.022,-0.580,-0.431,0.199,0.215,-0.010,-0.192,0.378,0.325,0.583,0.070,0.324,0.448,0.340,0.245,0.232,0.251,0.280,0.270,0.448,0.405,0.006,-0.159,-0.280,-0.094,0.133,-0.704,0.403,0.151,0.052,0.102,0.622,0.110,0.223,0.092,-0.082,0.485,0.473,0.130,0.399,-0.031,0.515,0.475,0.595,0.455,-0.183,-0.152,-0.415,0.040,-0.187,-0.144,-0.877,-0.604,-0.277,-0.467,-0.740,0.644,0.844,-0.054,0.351,-0.201,-0.156,0.469,-1.111,-0.280,-0.232,0.273,0.188,-0.135,-0.333,1.113,-0.137,-0.982,-1.000,-0.530,0.234,-0.425,0.303,0.439,0.812,0.463,-0.346,0.121,0.480,0.694,0.116,0.028,0.033,0.504,0.076,0.103,0.494,0.269,0.725,0.158,0.422,0.415,-0.238,-0.000,-0.078,0.230,-0.099,0.139,0.213,0.117,0.124,0.140,0.514,0.338,0.344,0.277,0.124,0.478,0.301,0.244,0.035,-0.056,-0.009,0.256,0.265,0.054,-0.242,-0.146,0.159,0.026,0.083,-0.649,-0.008,-0.249,0.426,0.314,0.286,-0.569,0.111,0.580,-0.366,-0.046,-0.117,0.157,-0.025,-0.925,0.207,0.028,0.028,-0.221,-0.444,0.577,-0.336,-0.040,-0.285,-0.752,0.028,-0.485,0.103,-0.094,-0.423,-0.156,0.646,0.764,0.226,-0.388,0.073,-1.015,0.524,-0.477,-0.079,0.033,-0.468,0.002,-0.430,-0.222,-0.289,-0.514,-0.263,-0.069,0.237,0.899,0.313,-0.366,-0.671,0.039,0.216,0.467,-0.442,-0.349,0.932,0.458,0.038,-0.296,-1.400,-0.290,0.297,0.499,0.360,-0.886,-0.009,0.402,0.017,-0.370,-0.366,0.002,0.351,-0.589,0.134,0.116,-0.195,-0.119,-0.073,2.416,1.248,0.424,0.702,0.058,1.367,-0.812,0.604,-0.011,-0.080,0.134,0.178,-0.098,-0.522,-1.477,-0.518,0.844,1.085,0.978,-0.327,0.406,-0.053,-0.104,-0.103,0.785,0.507,0.426,-0.026,0.231,-0.116,0.880,-0.427,-0.290,0.291,-0.247,-0.279,-0.751,-0.748,-0.055,-1.301,-0.974,-0.471,-0.059,1.146,0.406,-0.119,-0.175,-0.363,-0.346,-0.177,-0.180,-0.175,-0.187,-0.258,-0.428,-0.060,-0.437,-0.361,0.030,-0.501,-0.077,-0.459,-0.300,0.007,-0.610,-0.402,-0.553,-0.218,0.492,0.169,-1.571,-1.074,0.100,-0.668,0.820,-1.060,-0.541,-0.000,-0.150,-0.087,-0.163,-1.048,-0.715,0.377,0.040,-0.740,-0.884,-0.182,0.146,-1.585,-0.963,-0.452,-0.380,-0.141,-0.900,-0.779,-0.280,0.599,0.308,0.080,-0.067,0.264,0.579,0.454,0.175,0.071,0.412,0.537,0.580,0.353,0.168,0.344,0.619,0.481,0.201,-0.225,-0.095,-0.035,0.153,0.105,-0.811,0.188,0.241,0.031,0.429,-0.274,0.308,0.435,0.051,-0.197,-0.046,-0.011,0.299,0.266,-0.162,0.217,0.026,0.577,0.231,0.120,0.201,0.104,0.246,-0.126,-0.033,-0.134,0.375,0.181,0.161,0.059,1.373,0.463,0.451,0.358,0.221,-0.076,0.604,-0.745,0.237,0.263,-0.191,0.706,0.288,0.551,0.489,-0.222,-0.029,-0.776,-0.243,0.638,0.214,0.441,0.555,0.555,0.276,-0.239,0.381,0.592,0.420,-0.102,-0.088,-0.085,0.722,0.184,0.060,0.297,0.114,0.613,0.251,0.267,0.206,0.157,0.075,-0.046,0.316,0.212,0.241,0.448,0.342,0.166,-0.057,0.430,0.350,0.445,0.216,-0.049,0.266,0.319,0.410,0.295,-0.091,0.072,0.170,0.380,-0.039,-0.568,0.074,0.061,0.023,0.049,-0.832,-0.081,0.026,0.312,0.059,-0.256,-0.242,0.236,0.180,-0.346,-0.468,-0.445,0.151,-0.171,-0.839,-0.267,-0.240,0.175,-0.221,-0.637,0.177,-0.010,0.202,-0.078,-0.253,-0.242,-0.107,-0.065,-0.355,-0.692,0.026,-0.121,0.278,0.010,-0.037,-0.282,-0.966,1.022,0.979,0.869,0.481,-0.114,-0.303,-0.711,-0.651,-0.153,-0.184,-0.442,-0.086,-0.616,-0.397,-0.333,-0.670,-0.152,-0.030,-0.171,-0.001,-0.539,0.334,0.598,-0.092,-0.133,-1.490,0.192,1.016,1.213,0.628,-0.046,-0.058,0.335,-0.489,-1.147,0.061,-0.090,-0.679,-1.661,-1.886,0.476,0.196,-0.426,0.323,-0.769,2.280,1.407,0.111,-0.402,-1.765,2.466,1.878,1.032,0.406,2.383,-0.563,-1.479,0.138,1.957,0.813,-0.155,0.337,0.099,-0.840,-0.329,-0.279,-0.478,-0.489,0.007,-0.272,-0.087,0.121,0.458,0.023,-0.377,0.200,0.000,0.780,0.623,0.339,0.508,0.101,-0.304,-0.691,-1.729,-0.147,0.206,-0.800,-1.449,-1.535,-0.473,-0.036,-0.534,0.070,-0.250,-0.265,-0.293,0.193,-0.028,-0.103,0.174,0.335,0.354,0.345,-0.057,0.075,-0.014,-0.177,-0.733,-1.518,-0.081,-0.062,-0.525,-0.716,-1.249,0.211,-0.283,-0.910,-0.656,0.260,-0.848,-1.002,-0.477,0.262,0.072,0.010,0.873,0.584,1.381,-0.172,1.610,0.900,0.932,-0.706,-1.867,-0.384,-0.337,-1.191,-1.138,-0.992,-0.794,1.358,0.113,-0.856,-0.299,0.364,0.203,-0.226,-0.230,0.325,-0.037,-0.408,-1.099,-0.450,0.183,-0.192,-0.250,-0.547,0.004,0.071,-0.427,-0.006,0.153,0.313,-0.176,-0.595,0.090,-0.307,-1.404,-0.258,0.256,-0.229,-0.277,-0.290,-0.119,-0.329,0.288,-1.107,0.518,0.489,0.517,-0.691,-0.914,0.355,0.287,-0.087,-0.615,0.156,0.297,0.052,-0.592,0.090,0.064,-1.057,-0.357,0.444,0.225,0.433,0.993,1.075,0.779,0.141,-0.730,-0.188,0.071,0.738,-0.183,-0.395,0.124,-0.293,-0.438,0.164,0.691,0.647,-1.216,-1.222,0.615,-0.610,-1.002,-0.294,0.835,0.701,0.331,-0.170,-0.103,-0.087,-0.113,-1.288,-0.333,0.626,0.272,-0.482,-1.028,0.230,0.719,-0.621,-0.141,-0.288,0.685,-0.213,-1.075,-0.053,-0.299,-0.607,-0.230,-0.106,0.114,-0.099,0.002,-0.284,-0.404,-0.207,-0.848,-0.144,0.196,-0.288,-0.320,-0.344,-0.027,0.275,-0.546,-0.098,-0.005,-0.190,-0.211,-0.651,0.166,0.068,-1.026,-0.921,0.378,0.446,0.102,-0.322,-0.473,-0.799,0.091,-1.076,-0.333,0.289,-0.324,-0.207,-0.874,-0.555,0.582,-0.612,-0.164,0.440,0.285,-0.291,-1.575,-0.243,-0.574,0.337,0.266,0.395,0.148,0.558,0.553,1.007,0.721,0.857,-0.709,-0.850,-0.522,-0.292,-0.006,-0.395,-0.458,-0.400,0.404,0.469,1.033,0.476,0.500,0.125,0.872,0.023,0.754,0.268,0.170,-0.234,1.745,1.295,0.425,0.158,-0.437,-0.077,-0.463,-0.560,-0.262,-0.947,-0.656,-0.575,-0.167,-0.325,-0.848,0.552,0.463,-0.015,-0.166,-0.511,-0.359,-0.001,-0.642,-0.989,-0.655,-0.088,-0.231,0.253,-0.052,0.194,-1.236,-0.744,-0.799,-0.376,0.151,-0.411,-0.646,-0.743,-0.212,-0.481,0.941,-0.119,-0.180,-0.308,0.304,0.901,1.277,1.097,0.853,0.241,1.452,0.822,1.316,0.912,0.593,-0.215,-1.574,-0.191,-0.091,0.124,0.015,-0.707,-0.085,0.122,0.064,1.170,0.352,0.597,0.310,0.307,0.115,0.661,0.471,0.523,0.528,0.682,0.467,0.573,0.163,0.611,-0.060,-0.652,-0.561,0.012,0.214,-0.566,-0.080,0.018,0.233,0.546,1.015,0.143,0.468,0.293,0.383,-0.451,0.434,0.485,0.588,0.647,0.045,0.539,0.482,0.806,0.240,0.469,-0.572,-0.024,0.293,-0.267,-0.593,-0.325,-0.056,0.211,0.097,0.144,0.037,-0.074,0.383,0.016,0.484,0.527,0.124,-0.231,-0.282,1.071,0.565,-0.216,0.082,0.029,-0.011,0.271,-0.405,0.594,-0.438,-0.808,-0.573,-0.375,-0.638,-0.005,0.363,-0.357,-0.622,-0.045,0.014,0.443,-0.307,-0.075,-0.553,-0.126,0.602,0.324,0.052,0.083,-0.135,0.167,0.323,0.455,0.403,0.271,0.666,0.616,0.637,-0.440,-0.463,-0.435,-0.141,-1.015,-1.027,0.036,0.329,0.750,0.171,-0.210,0.059,0.504,1.838,0.781,0.645,0.445,-0.848,0.022,-0.327,0.917,-0.018,-1.831,-2.401,-0.162,0.329,-0.812,-1.439,-0.809,0.105,0.475,-0.062,0.100,0.614,0.234,-0.277,-0.110,1.061,0.200,-0.002,0.526,0.210,-0.137,-0.260,-0.053,0.529,-0.135,-1.329,0.264,0.328,0.028,-0.843,-1.936,-0.320,-1.078,-0.473,-0.102,-0.398,0.269,-0.038,-0.306,0.037,0.401,-0.006,-0.243,0.052,-0.242,0.075,0.103,-0.010,0.023,-0.342,-0.306,-0.310,0.263,-0.177,-0.444,-0.650,-0.365,-0.462,-0.181,0.098,0.232,-0.197,-0.374,-0.444,-0.381,0.864,0.277,-0.122,-0.131,0.284,1.247,1.954,-0.058,0.233,0.540,-0.545,1.152,0.387,0.000,-0.870,-1.899,-1.095,-1.410,-1.042,-1.703,-1.569,-0.015,-0.411,0.061,0.281,-0.185,-0.472,0.556,0.815,0.496,0.350,0.316,0.873,0.782,0.541,0.616,-0.001,0.565,0.316,0.672,0.336,-0.741,-0.462,-0.228,-0.141,-0.138,-1.301,0.699,-0.037,1.031,-0.081,0.383,0.491,0.204,0.625,-0.788,-0.027,0.240,-0.590,0.863,-0.271,-0.269,0.399,0.266,0.801,0.026,0.044,-0.459,0.176,-0.404,-0.238,-0.037,0.157,-1.368,-0.748,-0.743,0.205,0.989,0.628,-0.043,1.062,0.824,1.816,-0.513,-0.143,0.909,0.293,1.301,-0.628,-0.181,-0.373,-0.784,-0.864,-0.478,0.087,-0.146,-0.205,0.600,0.756,0.520,0.769,-0.158,0.563,1.077,0.194,0.186,0.318,0.539,1.348,-0.078,0.885,0.343,0.153,0.461,0.077,0.598,-0.299,-0.895,-0.254,-0.458,-0.103,-0.010,0.671,0.405,0.315,0.205,-0.132,0.598,0.474,0.547,0.417,0.272,0.586,0.368,0.649,0.225,-0.265,0.366,0.131,0.453,0.372,-0.582,-0.393,-0.206,-0.034,-0.269,-0.884,-0.294,-0.130,0.454,0.670,-0.023,-1.024,0.049,0.597,-0.174,-0.603,-0.121,0.660,-0.312,-0.302,-0.666,-0.185,-0.314,-0.186,-0.096,-0.393,-0.687,-0.403,-0.387,-0.703,-0.960,0.168,-1.006,-0.431,0.113,0.173,0.004,0.137,-0.517,-0.410,0.496,0.390,-0.042,-0.142,0.196,-0.261,-0.657,0.159,0.368,-0.041,-0.578,-1.110,0.211,-0.318,-0.254,0.227,-0.070,-0.066,-0.433,-0.217,0.091,-0.007,0.011,0.048,-0.120,-0.960,-1.608,0.164,-0.822,-0.390,-0.179,-1.055,0.068,-0.141,0.134,0.125,0.351,-0.188,-0.290,-0.048,0.228,0.728,-1.544,-1.152,0.023,0.337,-0.446,0.957,-0.014,0.366,1.667,0.861,1.817,0.399,1.904,1.119,-0.228,0.740,1.578,0.636,-1.647,-2.251,-1.035,-0.114,-0.376,-0.185,-0.604,0.185,-0.535,-0.455,-0.101,-0.063,0.436,0.005,-0.917,-0.469,-0.008,0.503,-0.448,-0.601,-0.003,-0.633,-0.360,-0.387,-0.418,0.132,-0.691,-0.487,-0.956,-0.836,0.059,0.019,0.128,-0.123,-0.083,0.004,-0.066,-0.033,-0.156,-0.216,-0.152,-0.233,-0.041,-0.334,-0.315,-0.132,-0.291,0.037,-0.067,-0.334,-0.157,-0.315,-0.105,-0.261,-0.194,-0.019,0.156,0.183,-0.247,-0.144,-0.495,0.126,-0.463,0.498,-0.687,-1.302,-1.010,-0.877,-1.881,-1.422,-0.241,-1.309,-1.653,-0.097,0.255,0.377,-0.353,-0.598,-0.221,-0.402,-0.418,-0.203,-0.557,1.077,0.083,-0.480,-0.555,0.340,0.353,-0.470,-1.254,-0.730,-0.816,0.119,0.330,0.272,0.615,-0.215,-0.438,0.492,0.650,0.248,-0.390,-0.176,-0.432,0.399,0.688,-0.396,0.816,-0.502,-0.655,-0.272,-0.090,-0.490,-1.037,-0.145,-0.071,0.020,0.540,0.281,0.503,0.521,0.024,0.310,0.116,0.051,0.395,0.429,-0.121,-0.360,0.085,0.575,0.235,1.058,0.265,0.176,0.088,0.458,-0.050,-0.235,-1.125,-0.896,-1.953,0.792,0.505,1.043,0.982,-1.221,0.028,0.865,0.622,-0.213,-0.012,-0.710,-0.590,-0.040,0.066,0.237,0.351,-0.682,-1.189,-0.690,0.172,0.457,-0.259,-0.786,-0.571,-1.195,0.574,0.674,0.536,0.316,-0.130,-0.308,-0.050,0.673,0.592,0.754,-0.595,-0.625,0.355,0.639,0.318,0.627,-0.258,-0.362,-0.333,0.030,0.333,-0.160,-0.423,-0.307,-0.587,0.025,-0.029,0.597,0.219,-0.083,-0.057,-0.165,0.158,0.339,0.328,-0.195,-0.002,0.198,0.514,0.076,0.661,-0.066,-0.676,0.243,0.095,0.655,0.439,-1.042,-1.242,-0.806,0.313,-0.279,0.502,0.143,-0.067,-0.020,-0.577,1.038,1.026,0.796,-0.210,-0.054,0.829,1.377,0.826,0.073,0.569,-0.115,-0.603,-0.084,0.270,0.488,-0.190,-0.571,-0.167,-1.137,0.335,-0.497,-0.600,0.116,-0.219,0.405,-0.660,-0.092,-0.224,-0.640,-0.269,-0.203,0.134,0.806,0.452,-0.481,-0.662,0.450,0.502,0.242,-0.856,-0.830,1.005,1.014,0.456,-0.337,-1.106,-0.965,-0.714,-0.351,0.232,-1.092,-0.419,-0.406,-0.146,-0.014,-0.008,0.285,0.079,-0.058,-0.017,-0.111,-0.461,-0.069,-0.696,1.674,1.143,0.465,0.727,0.314,2.198,-0.165,0.234,0.782,0.761,1.228,-0.040,0.326,-0.479,-0.550,-1.021,0.263,0.392,0.619,-0.071,-0.185,-0.378,-0.596,-0.215,0.483,0.071,-0.063,-0.183,0.210,-0.126,1.293,-0.278,-0.690,-0.199,0.267,0.435,-1.029,-0.669,0.024,-0.172,-0.552,-0.315,0.122,0.968,0.654,-0.238,-0.256,-0.291,-0.224,-0.348,-0.384,-0.467,-0.186,0.095,-0.373,-0.143,-0.416,-0.628,-0.060,-0.567,0.030,-0.576,-0.171,0.026,-0.524,-0.029,-0.368,0.000,0.410,0.403,-1.400,-1.124,-0.281,-0.353,0.791,-1.409,-1.311,0.180,0.091,-0.540,-0.021,-0.450,-0.802,0.008,0.052,-0.373,-1.319,-0.220,-0.123,-0.927,-0.009,0.073,0.254,-0.008,0.187,-1.053,-0.290,0.085,0.390,0.396,0.254,0.113,0.364,0.479,0.029,0.029,0.480,0.234,0.260,-0.164,0.034,0.298,0.315,0.018,0.307,0.497,0.062,-0.061,0.052,0.401,-0.073,0.132,0.492,0.698,0.025,-0.740,0.471,0.208,0.169,-0.580,-0.267,0.589,-0.218,0.285,-0.279,0.769,0.439,0.571,0.232,-0.283,0.019,0.018,-0.103,-0.432,-0.224,-1.109,-0.830,-1.062,-0.080,0.663,1.285,-0.236,-0.011,0.913,0.551,0.000,-0.546,-1.258,-0.798,-0.936,-0.965,-0.518,-0.865,-1.080,0.686,-0.182,0.303,-0.537,0.004,0.089,-0.099,0.328,0.609,0.927,0.753,0.186,0.295,0.712,0.293,0.116,-0.144,0.217,0.578,0.034,0.071,0.112,0.195,0.676,-0.118,0.338,0.513,0.245,-0.132,-0.348,0.282,0.231,-0.135,0.103,0.194,0.055,-0.073,0.090,0.433,0.212,0.122,-0.088,0.409,0.431,0.471,0.260,0.071,0.125,0.308,0.397,0.104,0.037,-0.177,-0.085,0.067,0.177,-0.301,0.092,0.180,0.005,0.066,0.561,-0.236,0.177,0.420,-0.116,-0.292,0.073,0.650,0.027,-0.624,0.308,0.037,0.092,-0.238,-0.410,0.944,-0.346,-0.499,-1.027,-0.239,0.635,-0.367,-0.986,0.270,0.654,0.285,-0.725,-0.026,0.438,0.540,-0.068,0.461,0.452,0.512,0.699,0.087,0.114,0.485,0.705,0.389,0.176,-0.447,0.026,0.198,-0.149,-0.406,-0.564,-0.239,0.756,0.813,0.598,-0.063,1.056,1.020,0.429,-0.012,-0.105,0.085,0.536,0.582,-0.108,-0.397,0.221,0.787,0.624,-0.178,-0.017,0.565,0.536,-0.336,-0.378,-0.101,0.548,0.697,0.884,0.304,-0.468,0.439,0.693,-0.214,-0.211,-0.282,0.410,-0.244,0.299,0.069,0.600,0.836,0.170,0.230,0.728,0.525,0.580,-0.176,0.201,0.983,1.643,-0.364,1.076,1.258,0.562,-1.048,-0.221,0.427,0.373,0.182,0.704,-0.167,0.661,0.119,-0.125,0.297,0.236,0.863,0.086,-0.257,0.222,0.268,0.564,-0.678,0.244,0.443,0.116,0.791,0.564,0.466,0.204,0.534,0.738,0.887,0.426,0.536,0.495,0.466,0.729,0.546,0.256,0.522,0.627,0.567,0.240,-0.112,0.475,0.469,0.268,0.150,0.123,-0.338,0.063,0.290,-0.076,-0.433,-0.324,-0.020,-0.069,-0.327,-0.048,-0.510,0.119,-0.318,-0.663,0.014,-0.180,0.167,-0.589,-0.702,-0.566,0.092,0.059,-0.318,-0.502,-0.174,-0.117,0.381,0.655,0.627,-0.056,-0.523,0.017,0.490,0.775,0.503,0.457,0.353,-0.331,0.500,-0.560,-0.850,-0.015,-0.120,-0.532,-0.304,-0.180,-0.121,-0.674,-0.169,0.730,0.110,-0.197,0.588,-0.734,-0.301,-1.094,-0.086,0.591,-1.434,-2.478,-2.062,0.451,-0.264,-0.563,-0.106,0.046,0.153,0.985,0.442,0.625,0.569,-0.414,-1.030,-0.664,0.639,0.088,-0.225,0.370,0.787,1.784,-0.112,0.221,0.460,2.034,1.991,-0.059,-0.174,-0.593,0.825,-0.228,-1.162,-0.467,-0.661,-0.171,-0.885,-0.848,0.432,-0.191,0.796,0.815,0.152,0.846,1.163,1.057,0.026,-0.538,0.862,1.073,0.135,-0.682,-0.552,0.576,-0.012,0.040,-0.076,-0.310,0.103,-0.039,-0.211,0.417,0.311,-0.102,-1.557,-0.584,0.572,0.040,0.453,0.081,0.017,-0.427,-0.703,-0.194,0.505,0.117,-0.736,-0.473,-0.095,-0.030,-0.037,-0.271,-0.216,-0.378,0.275,-0.209,-0.240,-0.016,-0.569,-0.955,-0.497,-0.069,-0.380,1.142,0.376,0.100,-1.342,-0.701,0.679,1.739,0.368,-1.642,-0.802,0.663,0.435,-0.796,0.156,-0.378,-0.201,0.893,0.020,0.412,0.642,-0.386,-1.464,-0.501,0.685,0.838,-0.655,-0.293,-0.694,-0.485,-0.492,-0.498,0.141,0.495,0.561,0.288,-0.418,-0.434,0.055,0.308,-0.786,-0.793,-0.329,-0.025,-0.024,0.142,-0.265,-0.423,-0.201,0.402,-0.097,0.098,0.501,-0.318,-0.713,-0.801,-0.341,-0.089,0.214,-0.614,-1.040,0.084,-0.281,-0.348,-0.282,-0.451,0.116,0.057,-0.195,0.023,-1.118,0.241,-0.365,-0.181,-0.475,-0.398,0.135,-0.425,0.512,-0.608,-0.127,0.101,0.127,-0.068,0.478,-0.279,-0.974,0.251,1.101,0.611,0.004,-0.310,0.014,0.122,-0.438,0.698,0.001,0.230,-0.651,0.134,-0.419,-0.010,0.739,-0.042,-0.743,-0.787,-0.170,-0.872,-0.372,0.540,-0.409,-0.130,0.763,-0.503,-0.491,-0.033,-0.118,0.152,-0.750,-1.161,-0.856,-0.467,-0.436,0.045,0.811,-0.524,0.060,-1.439,0.343,0.546,-0.629,-0.153,-0.578,0.554,-0.378,-0.749,0.209,0.115,0.726,-0.435,-0.033,-0.407,0.385,0.786,-0.486,0.019,0.078,-0.441,0.030,-0.038,0.321,-0.480,-0.870,-0.330,0.585,-0.362,0.243,0.794,-1.324,-0.312,0.244,0.133,0.087,0.070,-0.172,-0.224,-0.141,-0.326,-0.070,-0.173,-0.181,-0.012,-0.243,-0.182,-0.097,-0.068,-0.361,-0.021,-0.263,-0.723,-0.563,-0.263,-0.207,0.310,-0.383,1.380,-0.139,-0.006,0.618,-0.663,-0.509,-0.316,0.113,-0.265,0.379,-0.783,-0.409,0.248,-1.023,0.031,0.116,-0.294,-0.119,-0.011,1.152,0.288,0.033,-0.196,-1.277,0.294,0.535,0.187,0.350,0.312,-0.108,0.013,-0.342,-0.070,-0.388,-0.074,-0.118,-0.216,-0.223,-0.483,0.068,-0.150,0.010,-0.333,0.004,-0.282,-0.650,0.840,-0.657,0.041,-0.118,0.263,-0.116,-0.351,0.200,-0.492,0.340,-0.099,-0.408,0.064,-0.108,0.071,-0.940,-0.740,0.098,-0.093,0.019,0.963,0.322,-0.532,-0.286,-0.298,-0.502,0.236,0.329,0.310,0.536,0.044,0.308,-1.018,-0.389,0.058,-0.560,-0.410,-0.237,-0.237,-0.116,-0.175,-0.525,-0.212,-0.054,0.032,-0.162,-0.185,-0.318,-0.067,-0.110,-0.493,-0.617,-0.157,-0.355,-0.291,-0.335,-0.562,-0.310,-0.041,-0.125,-0.704,-0.652,-0.251,-0.106,-0.054,-0.579,-0.093,-0.505,0.129,-0.283,0.500,-0.178,0.070,0.075,0.022,0.254,0.575,-0.695,-0.229,0.562,-0.018,-0.129,0.486,-0.076,-0.459,0.294,0.295,0.080,-0.498,0.405,-0.653,-0.848,-0.726,0.025,-0.207,-0.876,-0.000,-0.879,-0.395,-0.282,-0.033,-0.176,-0.006,-0.564,-0.257,0.837,-0.158,0.023,-0.372,-0.405,-0.280,-0.115,0.030,-0.160,-0.072,-0.083,-0.093,-0.675,-1.203,-0.106,-0.209,0.448,-0.164,-0.832,-0.518,0.118,0.622,0.190,0.022,0.109,0.132,-0.404,-0.156,0.520,0.099,-0.426,0.599,0.235,0.033,-0.319,0.834,-0.023,0.066,-0.374,0.006,0.074,0.517,0.082,-0.226,0.059,-0.067,-0.283,-0.410,0.496,-0.716,0.184,0.266,-0.177,0.649,-0.055,-0.430,0.540,-0.990,-1.163,0.540,0.458,-0.080,0.605,-0.381,0.030,-0.416,-0.904,-0.092,0.202,-0.695,-0.573,-0.699,-0.231,-0.279,-1.740,0.054,-0.116,-0.350,-0.518,0.142,-0.541,-1.516,-0.422,-0.178,-0.137,-0.277,-0.861,-0.052,-0.161,-0.358,-0.180,-0.041,0.020,-0.136,-0.292,-0.072,-0.003,-0.564,-1.066,0.184,-0.538,-0.028,-0.181,-0.183,1.134,-0.112,-0.040,0.323,-0.379,-0.620,0.160,0.658,0.024,0.165,-0.427,-0.150,-0.580,-0.433,-0.096,-0.610,-1.094,0.588,-0.238,0.085,-0.179,-0.475,-1.597,0.219,0.528,0.422,-0.161,-0.488,0.409,0.341,-0.095,-0.276,-0.218,-1.467,0.489,-0.510,-0.922,-0.017,0.352,0.050,-0.114,0.086,0.522,-0.055,-0.146,-0.517,-0.145,-0.212,-0.512,-0.808,0.062,0.387,0.398,-0.072,-0.173,-0.412,0.139,-0.269,0.994,-0.027,0.112,-1.638,1.090,1.070,-0.058,0.227,0.032,0.259,0.757,-0.066,0.281,0.304,0.014,-0.498,0.124,0.497,-0.234,0.494,-0.262,-0.288,-0.405,-0.130,0.013,-0.585,-0.286,-0.307,0.015,-0.351,-0.308,0.209,0.286,-0.337,-0.396,-0.624,-0.096,-0.574,-1.094,0.093,0.322,0.472,0.514,-0.348,0.061,-0.385,-0.300,0.269,-0.444,0.209,0.465,0.132,-0.079,0.786,-0.175,-2.112,-0.357,-0.240,0.723,0.161,0.263,1.296,-0.091,0.547,0.248,0.165,-0.351,0.239,0.217,-0.131,0.372,-0.437,0.418,0.170,-0.183,-0.285,0.517,0.059,-0.595,0.017,-0.333,-0.278,0.259,-0.146,-0.461,0.334,-0.285,-0.404,0.194,0.378,-0.092,-1.367,-0.095,-2.374,-1.251,-0.305,-0.370,0.865,0.177,-0.388,0.045,1.599,-0.827,0.457,-0.901,-0.039,1.598,-0.554,0.477,0.333,-0.297,0.334,-0.695,-0.258,0.201,0.217,-0.145,0.554,-0.676,0.173,0.355,0.274,0.299,-0.160,-0.197,0.214,0.601,-0.079,-0.474,0.710,0.139,0.458,0.271,0.760,0.764,-0.841,0.242,0.115,0.516,0.011,-1.085,0.271,-0.342,0.452,-0.344,0.605,0.131,-0.088,0.319,0.417,-1.752,-0.217,0.552,0.360,-0.034,0.522,-0.212,0.452,0.093,0.048,0.807,0.224,0.169,0.376,1.159,0.483,-0.344,0.257,0.012,-0.677,0.423,0.401,0.850,-0.159,-0.609,0.368,0.481,-0.152,0.810,0.385,-0.924,0.905,0.557,-0.713,-0.954,-0.181,0.310,-0.797,0.653,0.321,-0.535,-1.301,0.609,-0.764,0.129,-0.691,0.199,0.467,-0.057,0.214,0.594,-0.115,0.457,-0.044,0.531,-0.002,0.406,0.575,0.057,0.034,1.306,0.048,-0.738,0.107,0.278,0.373,-0.192,-0.181,0.830,-0.198,-0.019,-0.049,-0.168,-0.499,-0.043,1.124,0.243,0.101,0.582,-0.096,0.309,1.031,0.257,-0.247,0.286,0.035,-0.013,-0.879,1.092,-0.456,0.316,-0.613,0.143,