[array([[0.10110845,0.55344194,0.3305084],[-0.34682322,-0.08637146,0.29031268],[0.04756185,-0.4162212,0.7543123],[-0.230472,-0.4687886,-0.19505131],[0.30818954,0.19570921,0.22384456],[-0.82624036,-0.50413716,-0.24322678],[1.0635885,1.1888989,0.7441062],[0.0865123,-0.26377138,-0.12383943],[-0.82179964,0.21519546,0.26255468],[0.11471111,-0.4047743,0.25906092],[0.47137237,0.21034817,0.6369733],[-0.3192968,0.77536523,0.19099906],[-0.35041213,0.22878616,0.6201376],[0.53846866,0.5678113,0.48675376],[-0.6029673,-0.22728223,0.01021064],[0.04063694,0.48569334,0.5715054],[0.0865699,-0.26445958,-0.12408452],[0.08610367,0.20661306,-0.31801564],[0.09149086,0.7458733,-0.6105846],[-0.3408093,-0.41731673,0.43978623],[0.35115772,-0.26831663,-0.00767926],[0.08674294,-0.26663285,-0.12485116],[-0.30434847,-0.2052152,0.759841],[0.24777946,-0.41820106,0.30188772],[0.0866528,-0.2654868,-0.12444789],[0.44844985,-0.18301219,-0.4230143],[0.47846392,0.0262355,-0.7026487],[0.4182829,-0.13929759,0.13066642],[-0.09275762,-0.02095235,0.5262512],[0.82647926,-0.5578917,0.4519929],[-0.5712096,0.03814355,-0.14188069],[-0.5198817,-0.42917958,0.6659852],[-0.39571068,-0.12526338,0.5892857],[0.08674644,-0.2666498,-0.12485816],[0.09139137,0.74737513,-0.6108336],[0.05452264,0.31024152,0.12688717],[0.10634457,0.16577128,0.01212905],[-0.19736917,-0.25685206,-0.4549614],[0.10134504,0.04323908,-0.87741834],[0.08602072,-0.25817648,-0.12182283],[-0.31181905,-0.8135802,0.19987006],[-0.24433334,-0.4892874,0.09832416],[-0.38650522,0.5983683,0.39200613],[-0.96089983,0.9507515,-0.48307803],[0.19427834,-0.06309129,0.26009318],[-0.14649875,0.10616753,0.80825627],[-0.13412823,0.19277444,0.25974292],[0.08609109,0.20666566,-0.31814218],[0.8359893,-0.7206668,-0.5489786],[0.79725766,-0.0522437,0.31966093],[-0.32302502,-0.04270713,-0.7418857],[-0.67575896,-0.30640286,0.4143138],[0.26810172,0.6126875,0.42350435],[0.08644704,0.20496412,-0.31411174],[-0.5330212,0.02549675,0.24514766],[0.54412705,0.3407227,0.4028816],[-0.24161004,-0.15233825,0.25126195],[0.17940873,0.15477625,0.44323382],[0.44349894,-0.3312327,-0.72931516],[0.04223019,-0.05680581,0.21377233],[0.49488336,-0.47519612,0.1492188],[0.29503018,0.24348815,0.26037958],[-0.1789575,-1.1002872,0.8913148],[-0.150233,-0.27892733,-0.7354787]],dtype=float32)]
[array([[0.06492633],[-0.27164876],[-0.37401333],[0.28295073],[0.12479589],[-0.32487988],[-0.19630232],[0.08583774],[-0.3104058],[0.31666616],[-0.33726877],[0.09759308],[0.70737654],[0.12088531],[-0.34422034],[-0.49225983],[0.10123964],[0.24513608],[0.12245671],[0.6767549],[-0.29024398],[0.25064895],[-0.65269077],[0.49049377],[0.1396228],[-0.5591242],[0.3112854],[-0.41203392],[0.9077268],[0.33964822],[0.49067456],[0.71473235],[-0.457232],[0.2557895],[0.26438838],[0.30856502],[0.29099712],[-0.72308564],[-0.753629],[0.04145807],[-0.2955527],[-0.42570895],[-0.25832325],[-0.15212843],[-0.3551172],[0.6274128],[-0.2991185],[0.26291403],[-0.45215765],[-0.29480162],[0.29595572],[0.73890615],[0.138368],[0.07788638],[-0.54142535],[0.18803234],[-0.46478572],[-0.396959],[0.6454172],[-0.33596408],[0.42092252],[0.07317769],[-0.17615788],[0.57312214]],dtype=float32),array([-0.2723593],dtype=float32)]
