[array([[-0.30248654,-0.419416,-0.5288321],[-0.18595962,-0.41754422,0.12226414],[0.82493436,1.0987293,-0.18469027],[0.04850317,-0.17118025,-0.08737241],[0.04385656,0.44488904,-0.06689677],[0.06134348,-0.4189083,0.72331905],[0.65813076,0.15499572,0.64315367],[0.07602138,-0.24912362,-0.17410538],[-0.8702672,0.20125178,0.22189593],[0.08065043,-0.29773712,-0.18477517],[0.5029439,0.18794884,0.62836844],[0.28414708,0.18563324,0.255363],[-0.13489644,-0.08359692,-0.2748591],[-0.13839023,0.19833341,-0.12047154],[-0.64900833,-0.186001,0.04988343],[0.44453433,0.57470536,-0.4617619],[0.03227081,0.17758444,0.01678478],[0.09707581,0.2853404,-0.30096877],[0.12278276,0.7113616,-0.22443892],[0.5220033,-0.20923725,0.53929746],[-0.1935837,-0.21313985,0.24868731],[-0.01395665,0.18125877,-0.30484325],[0.18598463,-0.4350154,-0.50140786],[0.21220958,-0.46629816,-0.25070998],[-0.22513583,-0.10588457,-0.64995235],[0.27479044,-0.5401833,-0.05519068],[0.6555341,0.0510339,-0.1867206],[0.54843134,-0.11394203,0.06764162],[0.41267374,-0.5070699,0.12498015],[0.15440515,-0.34521428,-0.1993624],[0.392689,-0.35157254,-0.6787719],[-0.08236923,-0.04825086,0.57933825],[-0.46160758,-0.07900678,0.67097735],[0.52496994,0.28416872,0.4255178],[0.39816225,0.3594495,-0.6361976],[-0.62238204,0.06268014,-0.11795723],[-0.22840397,0.6075816,0.1553563],[0.07711412,0.0671539,-0.8752732],[-0.58150667,0.02325865,0.2162259],[0.04544931,0.02764641,-0.12927052],[0.46039397,-1.0882508,-0.9042677],[-0.37106597,-0.6099176,0.02113113],[-0.54370517,0.19211556,-0.6048146],[-0.57506746,0.6907972,0.3319829],[0.14227046,-0.10001624,0.22072311],[0.10859105,-0.39559177,0.18588717],[-0.22190425,0.50052035,0.38193056],[-0.32801363,0.03684751,-0.28572428],[0.44704023,-0.10396533,-0.4307853],[0.81328267,-0.01033516,0.32626125],[-0.02298653,-0.435113,-0.70576704],[0.69609904,-0.44235677,0.19310632],[-0.13820091,0.24994513,-0.1206864],[-0.3704757,-0.17717709,-0.72939223],[-0.28881297,-0.23407936,0.69800013],[0.22934982,0.569473,0.36268046],[-0.2286896,-0.15809616,-0.45343536],[0.08521559,0.28521794,0.460006],[0.09571317,0.2837577,-0.29990798],[-0.29988533,-0.17675044,0.5245547],[0.19502898,-0.42919967,0.31559917],[-0.26484296,0.28247944,-0.71646476],[-0.24490686,-0.7773806,0.32511964],[0.08091877,-0.28932652,-0.18255943],[-0.17225708,0.63990414,-0.4206807],[-0.28917482,-0.5299588,-0.23872207],[-0.5239568,-0.37227398,0.6491187],[0.08607394,0.6145951,0.61558527],[-0.8436426,-0.48593694,-0.20777847],[0.1179887,0.7519655,-0.48303097],[-0.03974556,0.0702772,0.2301876],[0.3085187,-0.23144467,0.02731548],[-0.39791915,-0.06451665,0.2696178],[0.81358695,-0.27848175,-0.35467836],[-0.31103277,0.18777628,0.67365026],[-0.6789915,-0.2689614,0.34921622],[-0.3051396,-0.40656692,0.43826517],[0.28561085,0.01514482,0.40450233],[0.05802512,0.27469844,0.09047589],[0.46811005,-0.01771834,-0.6579611]],dtype=float32)]
[array([[-0.5066102],[-0.3318285],[-0.06102556],[0.33206785],[0.19135354],[-0.5053995],[-0.08024079],[0.15237105],[-0.3627341],[0.21311082],[-0.3544393],[0.22694053],[-0.28086635],[-0.18669882],[-0.40326446],[-0.3365338],[0.15754756],[0.31213903],[-0.3375761],[0.27338326],[-0.40714192],[0.28984684],[-0.77423835],[0.35699758],[0.44150656],[-0.45886335],[0.4266023],[-0.4690476],[0.5187362],[0.26196855],[0.7703353],[1.2172056],[-0.5658777],[0.31231976],[0.19826224],[0.5181427],[0.2944711],[-0.89769024],[-0.36167094],[0.12914778],[-0.2976885],[-0.3764053],[-0.28285244],[-0.19712208],[-0.45991492],[0.45848957],[-0.3822941],[0.45417503],[-0.7340294],[-0.3143831],[0.66547215],[0.336684],[-0.19472991],[0.4636144],[-0.7746028],[0.3043599],[-0.75406563],[-0.4104129],[0.21062279],[-0.42345563],[0.5022271],[0.26772663],[-0.34534076],[0.18179305],[-0.303298],[0.5050675],[0.96204627],[-0.33328593],[-0.33424813],[0.78335464],[-0.2927258],[-0.41031757],[-0.58434063],[-0.40585607],[1.2168018],[0.8035908],[0.9756934],[-0.47446403],[0.32601017],[0.48028076]],dtype=float32),array([-0.16077909],dtype=float32)]
